digraph Tree {
node [shape=box, style="filled, rounded", color="black", fontname=helvetica] ;
edge [fontname=helvetica] ;
0 [label=<latest_earliest_loan_interval &le; 0.5<br/>gini = 0.604<br/>samples = 74415<br/>value = [23229, 12506, 38680]<br/>class = 3>, fillcolor="#8139e54d"] ;
1 [label=<bank_card_count &le; 1.5<br/>gini = 0.012<br/>samples = 23364<br/>value = [23229, 108, 27]<br/>class = 1>, fillcolor="#e58139fe"] ;
0 -> 1 [labeldistance=2.5, labelangle=45, headlabel="True"] ;
2 [label=<overdue_days &le; 0.5<br/>gini = 0.009<br/>samples = 23333<br/>value = [23229, 88, 16]<br/>class = 1>, fillcolor="#e58139fe"] ;
1 -> 2 ;
3 [label=<latest_login_loan_interval &le; 0.5<br/>gini = 0.005<br/>samples = 9831<br/>value = [9804, 23, 4]<br/>class = 1>, fillcolor="#e58139fe"] ;
2 -> 3 ;
4 [label=<gini = 0.002<br/>samples = 2910<br/>value = [2907, 3, 0]<br/>class = 1>, fillcolor="#e58139ff"] ;
3 -> 4 ;
5 [label=<latest_login_loan_interval &le; 2.5<br/>gini = 0.007<br/>samples = 6921<br/>value = [6897, 20, 4]<br/>class = 1>, fillcolor="#e58139fe"] ;
3 -> 5 ;
6 [label=<latest_login_loan_interval &le; 1.5<br/>gini = 0.008<br/>samples = 6057<br/>value = [6034, 19, 4]<br/>class = 1>, fillcolor="#e58139fe"] ;
5 -> 6 ;
7 [label=<gini = 0.008<br/>samples = 3546<br/>value = [3532, 13, 1]<br/>class = 1>, fillcolor="#e58139fe"] ;
6 -> 7 ;
8 [label=<gini = 0.007<br/>samples = 2511<br/>value = [2502, 6, 3]<br/>class = 1>, fillcolor="#e58139fe"] ;
6 -> 8 ;
9 [label=<gini = 0.002<br/>samples = 864<br/>value = [863, 1, 0]<br/>class = 1>, fillcolor="#e58139ff"] ;
5 -> 9 ;
10 [label=<latest_login_loan_interval &le; 2.5<br/>gini = 0.011<br/>samples = 13502<br/>value = [13425, 65, 12]<br/>class = 1>, fillcolor="#e58139fe"] ;
2 -> 10 ;
11 [label=<latest_login_loan_interval &le; 0.5<br/>gini = 0.01<br/>samples = 11517<br/>value = [11457, 49, 11]<br/>class = 1>, fillcolor="#e58139fe"] ;
10 -> 11 ;
12 [label=<overdue_days &le; 1.5<br/>gini = 0.012<br/>samples = 646<br/>value = [642, 4, 0]<br/>class = 1>, fillcolor="#e58139fd"] ;
11 -> 12 ;
13 [label=<gini = 0.049<br/>samples = 40<br/>value = [39, 1, 0]<br/>class = 1>, fillcolor="#e58139f8"] ;
12 -> 13 ;
14 [label=<gini = 0.01<br/>samples = 606<br/>value = [603, 3, 0]<br/>class = 1>, fillcolor="#e58139fe"] ;
12 -> 14 ;
15 [label=<latest_login_loan_interval &le; 1.5<br/>gini = 0.01<br/>samples = 10871<br/>value = [10815, 45, 11]<br/>class = 1>, fillcolor="#e58139fe"] ;
11 -> 15 ;
16 [label=<overdue_days &le; 1.5<br/>gini = 0.009<br/>samples = 4171<br/>value = [4152, 14, 5]<br/>class = 1>, fillcolor="#e58139fe"] ;
15 -> 16 ;
17 [label=<gini = 0.0<br/>samples = 201<br/>value = [201, 0, 0]<br/>class = 1>, fillcolor="#e58139ff"] ;
16 -> 17 ;
18 [label=<gini = 0.01<br/>samples = 3970<br/>value = [3951, 14, 5]<br/>class = 1>, fillcolor="#e58139fe"] ;
16 -> 18 ;
19 [label=<overdue_days &le; 1.5<br/>gini = 0.011<br/>samples = 6700<br/>value = [6663, 31, 6]<br/>class = 1>, fillcolor="#e58139fe"] ;
15 -> 19 ;
20 [label=<gini = 0.01<br/>samples = 2583<br/>value = [2570, 10, 3]<br/>class = 1>, fillcolor="#e58139fe"] ;
19 -> 20 ;
21 [label=<gini = 0.012<br/>samples = 4117<br/>value = [4093, 21, 3]<br/>class = 1>, fillcolor="#e58139fe"] ;
19 -> 21 ;
22 [label=<overdue_days &le; 1.5<br/>gini = 0.017<br/>samples = 1985<br/>value = [1968, 16, 1]<br/>class = 1>, fillcolor="#e58139fd"] ;
10 -> 22 ;
23 [label=<gini = 0.016<br/>samples = 383<br/>value = [380, 3, 0]<br/>class = 1>, fillcolor="#e58139fd"] ;
22 -> 23 ;
24 [label=<gini = 0.017<br/>samples = 1602<br/>value = [1588, 13, 1]<br/>class = 1>, fillcolor="#e58139fd"] ;
22 -> 24 ;
25 [label=<latest_login_loan_interval &le; 2.5<br/>gini = 0.458<br/>samples = 31<br/>value = [0, 20, 11]<br/>class = 2>, fillcolor="#39e58173"] ;
1 -> 25 ;
26 [label=<overdue_days &le; 1.5<br/>gini = 0.444<br/>samples = 27<br/>value = [0, 18, 9]<br/>class = 2>, fillcolor="#39e5817f"] ;
25 -> 26 ;
27 [label=<latest_login_loan_interval &le; 1.5<br/>gini = 0.32<br/>samples = 5<br/>value = [0, 4, 1]<br/>class = 2>, fillcolor="#39e581bf"] ;
26 -> 27 ;
28 [label=<latest_login_loan_interval &le; 0.5<br/>gini = 0.5<br/>samples = 2<br/>value = [0, 1, 1]<br/>class = 2>, fillcolor="#39e58100"] ;
27 -> 28 ;
29 [label=<gini = 0.0<br/>samples = 1<br/>value = [0, 1, 0]<br/>class = 2>, fillcolor="#39e581ff"] ;
28 -> 29 ;
30 [label=<gini = 0.0<br/>samples = 1<br/>value = [0, 0, 1]<br/>class = 3>, fillcolor="#8139e5ff"] ;
28 -> 30 ;
31 [label=<gini = 0.0<br/>samples = 3<br/>value = [0, 3, 0]<br/>class = 2>, fillcolor="#39e581ff"] ;
27 -> 31 ;
32 [label=<latest_login_loan_interval &le; 1.5<br/>gini = 0.463<br/>samples = 22<br/>value = [0, 14, 8]<br/>class = 2>, fillcolor="#39e5816d"] ;
26 -> 32 ;
33 [label=<latest_login_loan_interval &le; 0.5<br/>gini = 0.375<br/>samples = 8<br/>value = [0, 6, 2]<br/>class = 2>, fillcolor="#39e581aa"] ;
32 -> 33 ;
34 [label=<gini = 0.5<br/>samples = 2<br/>value = [0, 1, 1]<br/>class = 2>, fillcolor="#39e58100"] ;
33 -> 34 ;
35 [label=<gini = 0.278<br/>samples = 6<br/>value = [0, 5, 1]<br/>class = 2>, fillcolor="#39e581cc"] ;
33 -> 35 ;
36 [label=<gini = 0.49<br/>samples = 14<br/>value = [0, 8, 6]<br/>class = 2>, fillcolor="#39e58140"] ;
32 -> 36 ;
37 [label=<overdue_days &le; 1.0<br/>gini = 0.5<br/>samples = 4<br/>value = [0, 2, 2]<br/>class = 2>, fillcolor="#39e58100"] ;
25 -> 37 ;
38 [label=<gini = 0.0<br/>samples = 1<br/>value = [0, 0, 1]<br/>class = 3>, fillcolor="#8139e5ff"] ;
37 -> 38 ;
39 [label=<gini = 0.444<br/>samples = 3<br/>value = [0, 2, 1]<br/>class = 2>, fillcolor="#39e5817f"] ;
37 -> 39 ;
40 [label=<latest_earliest_loan_interval &le; 1.5<br/>gini = 0.368<br/>samples = 51051<br/>value = [0, 12398, 38653]<br/>class = 3>, fillcolor="#8139e5ad"] ;
0 -> 40 [labeldistance=2.5, labelangle=-45, headlabel="False"] ;
41 [label=<bank_card_count &le; 1.5<br/>gini = 0.209<br/>samples = 8720<br/>value = [0, 7686, 1034]<br/>class = 2>, fillcolor="#39e581dd"] ;
40 -> 41 ;
42 [label=<overdue_days &le; 0.5<br/>gini = 0.189<br/>samples = 7989<br/>value = [0, 7145, 844]<br/>class = 2>, fillcolor="#39e581e1"] ;
41 -> 42 ;
43 [label=<average_loan_interval &le; 0.5<br/>gini = 0.216<br/>samples = 3747<br/>value = [0, 3285, 462]<br/>class = 2>, fillcolor="#39e581db"] ;
42 -> 43 ;
44 [label=<latest_login_loan_interval &le; 0.5<br/>gini = 0.408<br/>samples = 56<br/>value = [0, 40, 16]<br/>class = 2>, fillcolor="#39e58199"] ;
43 -> 44 ;
45 [label=<gini = 0.497<br/>samples = 13<br/>value = [0, 7, 6]<br/>class = 2>, fillcolor="#39e58124"] ;
44 -> 45 ;
46 [label=<latest_login_loan_interval &le; 1.5<br/>gini = 0.357<br/>samples = 43<br/>value = [0, 33, 10]<br/>class = 2>, fillcolor="#39e581b2"] ;
44 -> 46 ;
47 [label=<gini = 0.408<br/>samples = 14<br/>value = [0, 10, 4]<br/>class = 2>, fillcolor="#39e58199"] ;
46 -> 47 ;
48 [label=<latest_login_loan_interval &le; 2.5<br/>gini = 0.328<br/>samples = 29<br/>value = [0, 23, 6]<br/>class = 2>, fillcolor="#39e581bc"] ;
46 -> 48 ;
49 [label=<gini = 0.32<br/>samples = 20<br/>value = [0, 16, 4]<br/>class = 2>, fillcolor="#39e581bf"] ;
48 -> 49 ;
50 [label=<gini = 0.346<br/>samples = 9<br/>value = [0, 7, 2]<br/>class = 2>, fillcolor="#39e581b6"] ;
48 -> 50 ;
51 [label=<latest_login_loan_interval &le; 1.5<br/>gini = 0.212<br/>samples = 3691<br/>value = [0, 3245, 446]<br/>class = 2>, fillcolor="#39e581dc"] ;
43 -> 51 ;
52 [label=<latest_login_loan_interval &le; 0.5<br/>gini = 0.232<br/>samples = 1684<br/>value = [0, 1459, 225]<br/>class = 2>, fillcolor="#39e581d8"] ;
51 -> 52 ;
53 [label=<gini = 0.231<br/>samples = 502<br/>value = [0, 435, 67]<br/>class = 2>, fillcolor="#39e581d8"] ;
52 -> 53 ;
54 [label=<gini = 0.232<br/>samples = 1182<br/>value = [0, 1024, 158]<br/>class = 2>, fillcolor="#39e581d8"] ;
52 -> 54 ;
55 [label=<latest_login_loan_interval &le; 2.5<br/>gini = 0.196<br/>samples = 2007<br/>value = [0, 1786, 221]<br/>class = 2>, fillcolor="#39e581df"] ;
51 -> 55 ;
56 [label=<gini = 0.193<br/>samples = 1679<br/>value = [0, 1497, 182]<br/>class = 2>, fillcolor="#39e581e0"] ;
55 -> 56 ;
57 [label=<gini = 0.21<br/>samples = 328<br/>value = [0, 289, 39]<br/>class = 2>, fillcolor="#39e581dd"] ;
55 -> 57 ;
58 [label=<overdue_days &le; 1.5<br/>gini = 0.164<br/>samples = 4242<br/>value = [0, 3860, 382]<br/>class = 2>, fillcolor="#39e581e6"] ;
42 -> 58 ;
59 [label=<latest_login_loan_interval &le; 2.5<br/>gini = 0.116<br/>samples = 1245<br/>value = [0, 1168, 77]<br/>class = 2>, fillcolor="#39e581ee"] ;
58 -> 59 ;
60 [label=<average_loan_interval &le; 0.5<br/>gini = 0.102<br/>samples = 1108<br/>value = [0, 1048, 60]<br/>class = 2>, fillcolor="#39e581f0"] ;
59 -> 60 ;
61 [label=<latest_login_loan_interval &le; 1.5<br/>gini = 0.208<br/>samples = 17<br/>value = [0, 15, 2]<br/>class = 2>, fillcolor="#39e581dd"] ;
60 -> 61 ;
62 [label=<gini = 0.0<br/>samples = 4<br/>value = [0, 4, 0]<br/>class = 2>, fillcolor="#39e581ff"] ;
61 -> 62 ;
63 [label=<gini = 0.26<br/>samples = 13<br/>value = [0, 11, 2]<br/>class = 2>, fillcolor="#39e581d1"] ;
61 -> 63 ;
64 [label=<latest_login_loan_interval &le; 1.5<br/>gini = 0.101<br/>samples = 1091<br/>value = [0, 1033, 58]<br/>class = 2>, fillcolor="#39e581f1"] ;
60 -> 64 ;
65 [label=<latest_login_loan_interval &le; 0.5<br/>gini = 0.108<br/>samples = 174<br/>value = [0, 164, 10]<br/>class = 2>, fillcolor="#39e581ef"] ;
64 -> 65 ;
66 [label=<gini = 0.102<br/>samples = 37<br/>value = [0, 35, 2]<br/>class = 2>, fillcolor="#39e581f0"] ;
65 -> 66 ;
67 [label=<gini = 0.11<br/>samples = 137<br/>value = [0, 129, 8]<br/>class = 2>, fillcolor="#39e581ef"] ;
65 -> 67 ;
68 [label=<gini = 0.099<br/>samples = 917<br/>value = [0, 869, 48]<br/>class = 2>, fillcolor="#39e581f1"] ;
64 -> 68 ;
69 [label=<average_loan_interval &le; 0.5<br/>gini = 0.217<br/>samples = 137<br/>value = [0, 120, 17]<br/>class = 2>, fillcolor="#39e581db"] ;
59 -> 69 ;
70 [label=<gini = 0.0<br/>samples = 6<br/>value = [0, 6, 0]<br/>class = 2>, fillcolor="#39e581ff"] ;
69 -> 70 ;
71 [label=<gini = 0.226<br/>samples = 131<br/>value = [0, 114, 17]<br/>class = 2>, fillcolor="#39e581d9"] ;
69 -> 71 ;
72 [label=<latest_login_loan_interval &le; 1.5<br/>gini = 0.183<br/>samples = 2997<br/>value = [0, 2692, 305]<br/>class = 2>, fillcolor="#39e581e2"] ;
58 -> 72 ;
73 [label=<average_loan_interval &le; 0.5<br/>gini = 0.146<br/>samples = 1073<br/>value = [0, 988, 85]<br/>class = 2>, fillcolor="#39e581e9"] ;
72 -> 73 ;
74 [label=<latest_login_loan_interval &le; 0.5<br/>gini = 0.233<br/>samples = 52<br/>value = [0, 45, 7]<br/>class = 2>, fillcolor="#39e581d7"] ;
73 -> 74 ;
75 [label=<gini = 0.245<br/>samples = 7<br/>value = [0, 6, 1]<br/>class = 2>, fillcolor="#39e581d4"] ;
74 -> 75 ;
76 [label=<gini = 0.231<br/>samples = 45<br/>value = [0, 39, 6]<br/>class = 2>, fillcolor="#39e581d8"] ;
74 -> 76 ;
77 [label=<latest_login_loan_interval &le; 0.5<br/>gini = 0.141<br/>samples = 1021<br/>value = [0, 943, 78]<br/>class = 2>, fillcolor="#39e581ea"] ;
73 -> 77 ;
78 [label=<gini = 0.162<br/>samples = 101<br/>value = [0, 92, 9]<br/>class = 2>, fillcolor="#39e581e6"] ;
77 -> 78 ;
79 [label=<gini = 0.139<br/>samples = 920<br/>value = [0, 851, 69]<br/>class = 2>, fillcolor="#39e581ea"] ;
77 -> 79 ;
80 [label=<latest_login_loan_interval &le; 2.5<br/>gini = 0.203<br/>samples = 1924<br/>value = [0, 1704, 220]<br/>class = 2>, fillcolor="#39e581de"] ;
72 -> 80 ;
81 [label=<average_loan_interval &le; 0.5<br/>gini = 0.193<br/>samples = 1385<br/>value = [0, 1235, 150]<br/>class = 2>, fillcolor="#39e581e0"] ;
80 -> 81 ;
82 [label=<gini = 0.237<br/>samples = 51<br/>value = [0, 44, 7]<br/>class = 2>, fillcolor="#39e581d6"] ;
81 -> 82 ;
83 [label=<gini = 0.191<br/>samples = 1334<br/>value = [0, 1191, 143]<br/>class = 2>, fillcolor="#39e581e0"] ;
81 -> 83 ;
84 [label=<average_loan_interval &le; 0.5<br/>gini = 0.226<br/>samples = 539<br/>value = [0, 469, 70]<br/>class = 2>, fillcolor="#39e581d9"] ;
80 -> 84 ;
85 [label=<gini = 0.208<br/>samples = 17<br/>value = [0, 15, 2]<br/>class = 2>, fillcolor="#39e581dd"] ;
84 -> 85 ;
86 [label=<gini = 0.227<br/>samples = 522<br/>value = [0, 454, 68]<br/>class = 2>, fillcolor="#39e581d9"] ;
84 -> 86 ;
87 [label=<overdue_days &le; 0.5<br/>gini = 0.385<br/>samples = 731<br/>value = [0, 541, 190]<br/>class = 2>, fillcolor="#39e581a5"] ;
41 -> 87 ;
88 [label=<latest_login_loan_interval &le; 0.5<br/>gini = 0.415<br/>samples = 327<br/>value = [0, 231, 96]<br/>class = 2>, fillcolor="#39e58195"] ;
87 -> 88 ;
89 [label=<average_loan_interval &le; 0.5<br/>gini = 0.469<br/>samples = 64<br/>value = [0, 40, 24]<br/>class = 2>, fillcolor="#39e58166"] ;
88 -> 89 ;
90 [label=<gini = 0.5<br/>samples = 2<br/>value = [0, 1, 1]<br/>class = 2>, fillcolor="#39e58100"] ;
89 -> 90 ;
91 [label=<gini = 0.467<br/>samples = 62<br/>value = [0, 39, 23]<br/>class = 2>, fillcolor="#39e58169"] ;
89 -> 91 ;
92 [label=<average_loan_interval &le; 0.5<br/>gini = 0.398<br/>samples = 263<br/>value = [0, 191, 72]<br/>class = 2>, fillcolor="#39e5819f"] ;
88 -> 92 ;
93 [label=<latest_login_loan_interval &le; 1.5<br/>gini = 0.278<br/>samples = 6<br/>value = [0, 5, 1]<br/>class = 2>, fillcolor="#39e581cc"] ;
92 -> 93 ;
94 [label=<gini = 0.444<br/>samples = 3<br/>value = [0, 2, 1]<br/>class = 2>, fillcolor="#39e5817f"] ;
93 -> 94 ;
95 [label=<gini = 0.0<br/>samples = 3<br/>value = [0, 3, 0]<br/>class = 2>, fillcolor="#39e581ff"] ;
93 -> 95 ;
96 [label=<latest_login_loan_interval &le; 1.5<br/>gini = 0.4<br/>samples = 257<br/>value = [0, 186, 71]<br/>class = 2>, fillcolor="#39e5819e"] ;
92 -> 96 ;
97 [label=<gini = 0.411<br/>samples = 90<br/>value = [0, 64, 26]<br/>class = 2>, fillcolor="#39e58197"] ;
96 -> 97 ;
98 [label=<latest_login_loan_interval &le; 2.5<br/>gini = 0.394<br/>samples = 167<br/>value = [0, 122, 45]<br/>class = 2>, fillcolor="#39e581a1"] ;
96 -> 98 ;
99 [label=<gini = 0.394<br/>samples = 141<br/>value = [0, 103, 38]<br/>class = 2>, fillcolor="#39e581a1"] ;
98 -> 99 ;
100 [label=<gini = 0.393<br/>samples = 26<br/>value = [0, 19, 7]<br/>class = 2>, fillcolor="#39e581a1"] ;
98 -> 100 ;
101 [label=<overdue_days &le; 1.5<br/>gini = 0.357<br/>samples = 404<br/>value = [0, 310, 94]<br/>class = 2>, fillcolor="#39e581b2"] ;
87 -> 101 ;
102 [label=<latest_login_loan_interval &le; 0.5<br/>gini = 0.192<br/>samples = 93<br/>value = [0, 83, 10]<br/>class = 2>, fillcolor="#39e581e0"] ;
101 -> 102 ;
103 [label=<gini = 0.0<br/>samples = 5<br/>value = [0, 5, 0]<br/>class = 2>, fillcolor="#39e581ff"] ;
102 -> 103 ;
104 [label=<average_loan_interval &le; 0.5<br/>gini = 0.201<br/>samples = 88<br/>value = [0, 78, 10]<br/>class = 2>, fillcolor="#39e581de"] ;
102 -> 104 ;
105 [label=<gini = 0.0<br/>samples = 4<br/>value = [0, 4, 0]<br/>class = 2>, fillcolor="#39e581ff"] ;
104 -> 105 ;
106 [label=<latest_login_loan_interval &le; 2.5<br/>gini = 0.21<br/>samples = 84<br/>value = [0, 74, 10]<br/>class = 2>, fillcolor="#39e581dd"] ;
104 -> 106 ;
107 [label=<latest_login_loan_interval &le; 1.5<br/>gini = 0.204<br/>samples = 78<br/>value = [0, 69, 9]<br/>class = 2>, fillcolor="#39e581de"] ;
106 -> 107 ;
108 [label=<gini = 0.198<br/>samples = 9<br/>value = [0, 8, 1]<br/>class = 2>, fillcolor="#39e581df"] ;
107 -> 108 ;
109 [label=<gini = 0.205<br/>samples = 69<br/>value = [0, 61, 8]<br/>class = 2>, fillcolor="#39e581de"] ;
107 -> 109 ;
110 [label=<gini = 0.278<br/>samples = 6<br/>value = [0, 5, 1]<br/>class = 2>, fillcolor="#39e581cc"] ;
106 -> 110 ;
111 [label=<average_loan_interval &le; 0.5<br/>gini = 0.394<br/>samples = 311<br/>value = [0, 227, 84]<br/>class = 2>, fillcolor="#39e581a1"] ;
101 -> 111 ;
112 [label=<latest_login_loan_interval &le; 1.5<br/>gini = 0.488<br/>samples = 38<br/>value = [0, 22, 16]<br/>class = 2>, fillcolor="#39e58146"] ;
111 -> 112 ;
113 [label=<latest_login_loan_interval &le; 0.5<br/>gini = 0.498<br/>samples = 17<br/>value = [0, 8, 9]<br/>class = 3>, fillcolor="#8139e51c"] ;
112 -> 113 ;
114 [label=<gini = 0.0<br/>samples = 1<br/>value = [0, 0, 1]<br/>class = 3>, fillcolor="#8139e5ff"] ;
113 -> 114 ;
115 [label=<gini = 0.5<br/>samples = 16<br/>value = [0, 8, 8]<br/>class = 2>, fillcolor="#39e58100"] ;
113 -> 115 ;
116 [label=<latest_login_loan_interval &le; 2.5<br/>gini = 0.444<br/>samples = 21<br/>value = [0, 14, 7]<br/>class = 2>, fillcolor="#39e5817f"] ;
112 -> 116 ;
117 [label=<gini = 0.459<br/>samples = 14<br/>value = [0, 9, 5]<br/>class = 2>, fillcolor="#39e58171"] ;
116 -> 117 ;
118 [label=<gini = 0.408<br/>samples = 7<br/>value = [0, 5, 2]<br/>class = 2>, fillcolor="#39e58199"] ;
116 -> 118 ;
119 [label=<latest_login_loan_interval &le; 2.5<br/>gini = 0.374<br/>samples = 273<br/>value = [0, 205, 68]<br/>class = 2>, fillcolor="#39e581aa"] ;
111 -> 119 ;
120 [label=<latest_login_loan_interval &le; 0.5<br/>gini = 0.357<br/>samples = 219<br/>value = [0, 168, 51]<br/>class = 2>, fillcolor="#39e581b2"] ;
119 -> 120 ;
121 [label=<gini = 0.245<br/>samples = 14<br/>value = [0, 12, 2]<br/>class = 2>, fillcolor="#39e581d4"] ;
120 -> 121 ;
122 [label=<latest_login_loan_interval &le; 1.5<br/>gini = 0.364<br/>samples = 205<br/>value = [0, 156, 49]<br/>class = 2>, fillcolor="#39e581af"] ;
120 -> 122 ;
123 [label=<gini = 0.347<br/>samples = 85<br/>value = [0, 66, 19]<br/>class = 2>, fillcolor="#39e581b6"] ;
122 -> 123 ;
124 [label=<gini = 0.375<br/>samples = 120<br/>value = [0, 90, 30]<br/>class = 2>, fillcolor="#39e581aa"] ;
122 -> 124 ;
125 [label=<gini = 0.431<br/>samples = 54<br/>value = [0, 37, 17]<br/>class = 2>, fillcolor="#39e5818a"] ;
119 -> 125 ;
126 [label=<latest_earliest_loan_interval &le; 2.5<br/>gini = 0.198<br/>samples = 42331<br/>value = [0, 4712, 37619]<br/>class = 3>, fillcolor="#8139e5df"] ;
40 -> 126 ;
127 [label=<average_loan_interval &le; 1.5<br/>gini = 0.261<br/>samples = 29851<br/>value = [0, 4606, 25245]<br/>class = 3>, fillcolor="#8139e5d0"] ;
126 -> 127 ;
128 [label=<bank_card_count &le; 1.5<br/>gini = 0.244<br/>samples = 27775<br/>value = [0, 3954, 23821]<br/>class = 3>, fillcolor="#8139e5d5"] ;
127 -> 128 ;
129 [label=<latest_login_loan_interval &le; 1.5<br/>gini = 0.267<br/>samples = 22849<br/>value = [0, 3633, 19216]<br/>class = 3>, fillcolor="#8139e5cf"] ;
128 -> 129 ;
130 [label=<overdue_days &le; 1.5<br/>gini = 0.316<br/>samples = 5735<br/>value = [0, 1130, 4605]<br/>class = 3>, fillcolor="#8139e5c0"] ;
129 -> 130 ;
131 [label=<overdue_days &le; 0.5<br/>gini = 0.342<br/>samples = 3286<br/>value = [0, 718, 2568]<br/>class = 3>, fillcolor="#8139e5b8"] ;
130 -> 131 ;
132 [label=<latest_login_loan_interval &le; 0.5<br/>gini = 0.322<br/>samples = 1950<br/>value = [0, 394, 1556]<br/>class = 3>, fillcolor="#8139e5be"] ;
131 -> 132 ;
133 [label=<gini = 0.347<br/>samples = 353<br/>value = [0, 79, 274]<br/>class = 3>, fillcolor="#8139e5b5"] ;
132 -> 133 ;
134 [label=<gini = 0.317<br/>samples = 1597<br/>value = [0, 315, 1282]<br/>class = 3>, fillcolor="#8139e5c0"] ;
132 -> 134 ;
135 [label=<latest_login_loan_interval &le; 0.5<br/>gini = 0.367<br/>samples = 1336<br/>value = [0, 324, 1012]<br/>class = 3>, fillcolor="#8139e5ad"] ;
131 -> 135 ;
136 [label=<gini = 0.38<br/>samples = 381<br/>value = [0, 97, 284]<br/>class = 3>, fillcolor="#8139e5a8"] ;
135 -> 136 ;
137 [label=<gini = 0.362<br/>samples = 955<br/>value = [0, 227, 728]<br/>class = 3>, fillcolor="#8139e5af"] ;
135 -> 137 ;
138 [label=<latest_login_loan_interval &le; 0.5<br/>gini = 0.28<br/>samples = 2449<br/>value = [0, 412, 2037]<br/>class = 3>, fillcolor="#8139e5cb"] ;
130 -> 138 ;
139 [label=<gini = 0.296<br/>samples = 371<br/>value = [0, 67, 304]<br/>class = 3>, fillcolor="#8139e5c7"] ;
138 -> 139 ;
140 [label=<gini = 0.277<br/>samples = 2078<br/>value = [0, 345, 1733]<br/>class = 3>, fillcolor="#8139e5cc"] ;
138 -> 140 ;
141 [label=<overdue_days &le; 0.5<br/>gini = 0.25<br/>samples = 17114<br/>value = [0, 2503, 14611]<br/>class = 3>, fillcolor="#8139e5d3"] ;
129 -> 141 ;
142 [label=<latest_login_loan_interval &le; 2.5<br/>gini = 0.209<br/>samples = 6231<br/>value = [0, 739, 5492]<br/>class = 3>, fillcolor="#8139e5dd"] ;
141 -> 142 ;
143 [label=<gini = 0.199<br/>samples = 5211<br/>value = [0, 583, 4628]<br/>class = 3>, fillcolor="#8139e5df"] ;
142 -> 143 ;
144 [label=<gini = 0.259<br/>samples = 1020<br/>value = [0, 156, 864]<br/>class = 3>, fillcolor="#8139e5d1"] ;
142 -> 144 ;
145 [label=<overdue_days &le; 1.5<br/>gini = 0.272<br/>samples = 10883<br/>value = [0, 1764, 9119]<br/>class = 3>, fillcolor="#8139e5ce"] ;
141 -> 145 ;
146 [label=<latest_login_loan_interval &le; 2.5<br/>gini = 0.263<br/>samples = 5779<br/>value = [0, 902, 4877]<br/>class = 3>, fillcolor="#8139e5d0"] ;
145 -> 146 ;
147 [label=<gini = 0.267<br/>samples = 4790<br/>value = [0, 759, 4031]<br/>class = 3>, fillcolor="#8139e5cf"] ;
146 -> 147 ;
148 [label=<gini = 0.247<br/>samples = 989<br/>value = [0, 143, 846]<br/>class = 3>, fillcolor="#8139e5d4"] ;
146 -> 148 ;
149 [label=<latest_login_loan_interval &le; 2.5<br/>gini = 0.281<br/>samples = 5104<br/>value = [0, 862, 4242]<br/>class = 3>, fillcolor="#8139e5cb"] ;
145 -> 149 ;
150 [label=<gini = 0.283<br/>samples = 3553<br/>value = [0, 606, 2947]<br/>class = 3>, fillcolor="#8139e5cb"] ;
149 -> 150 ;
151 [label=<gini = 0.276<br/>samples = 1551<br/>value = [0, 256, 1295]<br/>class = 3>, fillcolor="#8139e5cd"] ;
149 -> 151 ;
152 [label=<latest_login_loan_interval &le; 1.5<br/>gini = 0.122<br/>samples = 4926<br/>value = [0, 321, 4605]<br/>class = 3>, fillcolor="#8139e5ed"] ;
128 -> 152 ;
153 [label=<latest_login_loan_interval &le; 0.5<br/>gini = 0.147<br/>samples = 1187<br/>value = [0, 95, 1092]<br/>class = 3>, fillcolor="#8139e5e9"] ;
152 -> 153 ;
154 [label=<overdue_days &le; 1.5<br/>gini = 0.187<br/>samples = 201<br/>value = [0, 21, 180]<br/>class = 3>, fillcolor="#8139e5e1"] ;
153 -> 154 ;
155 [label=<overdue_days &le; 0.5<br/>gini = 0.231<br/>samples = 120<br/>value = [0, 16, 104]<br/>class = 3>, fillcolor="#8139e5d8"] ;
154 -> 155 ;
156 [label=<gini = 0.233<br/>samples = 52<br/>value = [0, 7, 45]<br/>class = 3>, fillcolor="#8139e5d7"] ;
155 -> 156 ;
157 [label=<gini = 0.23<br/>samples = 68<br/>value = [0, 9, 59]<br/>class = 3>, fillcolor="#8139e5d8"] ;
155 -> 157 ;
158 [label=<gini = 0.116<br/>samples = 81<br/>value = [0, 5, 76]<br/>class = 3>, fillcolor="#8139e5ee"] ;
154 -> 158 ;
159 [label=<overdue_days &le; 1.5<br/>gini = 0.139<br/>samples = 986<br/>value = [0, 74, 912]<br/>class = 3>, fillcolor="#8139e5ea"] ;
153 -> 159 ;
160 [label=<overdue_days &le; 0.5<br/>gini = 0.147<br/>samples = 477<br/>value = [0, 38, 439]<br/>class = 3>, fillcolor="#8139e5e9"] ;
159 -> 160 ;
161 [label=<gini = 0.143<br/>samples = 270<br/>value = [0, 21, 249]<br/>class = 3>, fillcolor="#8139e5e9"] ;
160 -> 161 ;
162 [label=<gini = 0.151<br/>samples = 207<br/>value = [0, 17, 190]<br/>class = 3>, fillcolor="#8139e5e8"] ;
160 -> 162 ;
163 [label=<gini = 0.131<br/>samples = 509<br/>value = [0, 36, 473]<br/>class = 3>, fillcolor="#8139e5ec"] ;
159 -> 163 ;
164 [label=<overdue_days &le; 0.5<br/>gini = 0.114<br/>samples = 3739<br/>value = [0, 226, 3513]<br/>class = 3>, fillcolor="#8139e5ef"] ;
152 -> 164 ;
165 [label=<latest_login_loan_interval &le; 2.5<br/>gini = 0.109<br/>samples = 1215<br/>value = [0, 70, 1145]<br/>class = 3>, fillcolor="#8139e5ef"] ;
164 -> 165 ;
166 [label=<gini = 0.101<br/>samples = 1047<br/>value = [0, 56, 991]<br/>class = 3>, fillcolor="#8139e5f1"] ;
165 -> 166 ;
167 [label=<gini = 0.153<br/>samples = 168<br/>value = [0, 14, 154]<br/>class = 3>, fillcolor="#8139e5e8"] ;
165 -> 167 ;
168 [label=<latest_login_loan_interval &le; 2.5<br/>gini = 0.116<br/>samples = 2524<br/>value = [0, 156, 2368]<br/>class = 3>, fillcolor="#8139e5ee"] ;
164 -> 168 ;
169 [label=<overdue_days &le; 1.5<br/>gini = 0.123<br/>samples = 1919<br/>value = [0, 126, 1793]<br/>class = 3>, fillcolor="#8139e5ed"] ;
168 -> 169 ;
170 [label=<gini = 0.118<br/>samples = 1143<br/>value = [0, 72, 1071]<br/>class = 3>, fillcolor="#8139e5ee"] ;
169 -> 170 ;
171 [label=<gini = 0.129<br/>samples = 776<br/>value = [0, 54, 722]<br/>class = 3>, fillcolor="#8139e5ec"] ;
169 -> 171 ;
172 [label=<overdue_days &le; 1.5<br/>gini = 0.094<br/>samples = 605<br/>value = [0, 30, 575]<br/>class = 3>, fillcolor="#8139e5f2"] ;
168 -> 172 ;
173 [label=<gini = 0.105<br/>samples = 253<br/>value = [0, 14, 239]<br/>class = 3>, fillcolor="#8139e5f0"] ;
172 -> 173 ;
174 [label=<gini = 0.087<br/>samples = 352<br/>value = [0, 16, 336]<br/>class = 3>, fillcolor="#8139e5f3"] ;
172 -> 174 ;
175 [label=<latest_login_loan_interval &le; 1.5<br/>gini = 0.431<br/>samples = 2076<br/>value = [0, 652, 1424]<br/>class = 3>, fillcolor="#8139e58a"] ;
127 -> 175 ;
176 [label=<overdue_days &le; 0.5<br/>gini = 0.479<br/>samples = 562<br/>value = [0, 224, 338]<br/>class = 3>, fillcolor="#8139e556"] ;
175 -> 176 ;
177 [label=<latest_login_loan_interval &le; 0.5<br/>gini = 0.499<br/>samples = 257<br/>value = [0, 124, 133]<br/>class = 3>, fillcolor="#8139e511"] ;
176 -> 177 ;
178 [label=<bank_card_count &le; 1.5<br/>gini = 0.478<br/>samples = 48<br/>value = [0, 19, 29]<br/>class = 3>, fillcolor="#8139e558"] ;
177 -> 178 ;
179 [label=<gini = 0.473<br/>samples = 39<br/>value = [0, 15, 24]<br/>class = 3>, fillcolor="#8139e560"] ;
178 -> 179 ;
180 [label=<gini = 0.494<br/>samples = 9<br/>value = [0, 4, 5]<br/>class = 3>, fillcolor="#8139e533"] ;
178 -> 180 ;
181 [label=<bank_card_count &le; 1.5<br/>gini = 0.5<br/>samples = 209<br/>value = [0, 105, 104]<br/>class = 2>, fillcolor="#39e58102"] ;
177 -> 181 ;
182 [label=<gini = 0.5<br/>samples = 178<br/>value = [0, 91, 87]<br/>class = 2>, fillcolor="#39e5810b"] ;
181 -> 182 ;
183 [label=<gini = 0.495<br/>samples = 31<br/>value = [0, 14, 17]<br/>class = 3>, fillcolor="#8139e52d"] ;
181 -> 183 ;
184 [label=<overdue_days &le; 1.5<br/>gini = 0.441<br/>samples = 305<br/>value = [0, 100, 205]<br/>class = 3>, fillcolor="#8139e583"] ;
176 -> 184 ;
185 [label=<latest_login_loan_interval &le; 0.5<br/>gini = 0.403<br/>samples = 150<br/>value = [0, 42, 108]<br/>class = 3>, fillcolor="#8139e59c"] ;
184 -> 185 ;
186 [label=<bank_card_count &le; 1.5<br/>gini = 0.456<br/>samples = 57<br/>value = [0, 20, 37]<br/>class = 3>, fillcolor="#8139e575"] ;
185 -> 186 ;
187 [label=<gini = 0.444<br/>samples = 51<br/>value = [0, 17, 34]<br/>class = 3>, fillcolor="#8139e57f"] ;
186 -> 187 ;
188 [label=<gini = 0.5<br/>samples = 6<br/>value = [0, 3, 3]<br/>class = 2>, fillcolor="#39e58100"] ;
186 -> 188 ;
189 [label=<bank_card_count &le; 1.5<br/>gini = 0.361<br/>samples = 93<br/>value = [0, 22, 71]<br/>class = 3>, fillcolor="#8139e5b0"] ;
185 -> 189 ;
190 [label=<gini = 0.382<br/>samples = 74<br/>value = [0, 19, 55]<br/>class = 3>, fillcolor="#8139e5a7"] ;
189 -> 190 ;
191 [label=<gini = 0.266<br/>samples = 19<br/>value = [0, 3, 16]<br/>class = 3>, fillcolor="#8139e5cf"] ;
189 -> 191 ;
192 [label=<latest_login_loan_interval &le; 0.5<br/>gini = 0.468<br/>samples = 155<br/>value = [0, 58, 97]<br/>class = 3>, fillcolor="#8139e567"] ;
184 -> 192 ;
193 [label=<bank_card_count &le; 1.5<br/>gini = 0.5<br/>samples = 22<br/>value = [0, 11, 11]<br/>class = 2>, fillcolor="#39e58100"] ;
192 -> 193 ;
194 [label=<gini = 0.5<br/>samples = 20<br/>value = [0, 10, 10]<br/>class = 2>, fillcolor="#39e58100"] ;
193 -> 194 ;
195 [label=<gini = 0.5<br/>samples = 2<br/>value = [0, 1, 1]<br/>class = 2>, fillcolor="#39e58100"] ;
193 -> 195 ;
196 [label=<bank_card_count &le; 1.5<br/>gini = 0.457<br/>samples = 133<br/>value = [0, 47, 86]<br/>class = 3>, fillcolor="#8139e574"] ;
192 -> 196 ;
197 [label=<gini = 0.469<br/>samples = 112<br/>value = [0, 42, 70]<br/>class = 3>, fillcolor="#8139e566"] ;
196 -> 197 ;
198 [label=<gini = 0.363<br/>samples = 21<br/>value = [0, 5, 16]<br/>class = 3>, fillcolor="#8139e5af"] ;
196 -> 198 ;
199 [label=<overdue_days &le; 0.5<br/>gini = 0.406<br/>samples = 1514<br/>value = [0, 428, 1086]<br/>class = 3>, fillcolor="#8139e59b"] ;
175 -> 199 ;
200 [label=<bank_card_count &le; 1.5<br/>gini = 0.434<br/>samples = 705<br/>value = [0, 224, 481]<br/>class = 3>, fillcolor="#8139e588"] ;
199 -> 200 ;
201 [label=<latest_login_loan_interval &le; 2.5<br/>gini = 0.444<br/>samples = 605<br/>value = [0, 201, 404]<br/>class = 3>, fillcolor="#8139e580"] ;
200 -> 201 ;
202 [label=<gini = 0.435<br/>samples = 456<br/>value = [0, 146, 310]<br/>class = 3>, fillcolor="#8139e587"] ;
201 -> 202 ;
203 [label=<gini = 0.466<br/>samples = 149<br/>value = [0, 55, 94]<br/>class = 3>, fillcolor="#8139e56a"] ;
201 -> 203 ;
204 [label=<latest_login_loan_interval &le; 2.5<br/>gini = 0.354<br/>samples = 100<br/>value = [0, 23, 77]<br/>class = 3>, fillcolor="#8139e5b3"] ;
200 -> 204 ;
205 [label=<gini = 0.327<br/>samples = 73<br/>value = [0, 15, 58]<br/>class = 3>, fillcolor="#8139e5bd"] ;
204 -> 205 ;
206 [label=<gini = 0.417<br/>samples = 27<br/>value = [0, 8, 19]<br/>class = 3>, fillcolor="#8139e594"] ;
204 -> 206 ;
207 [label=<overdue_days &le; 1.5<br/>gini = 0.377<br/>samples = 809<br/>value = [0, 204, 605]<br/>class = 3>, fillcolor="#8139e5a9"] ;
199 -> 207 ;
208 [label=<bank_card_count &le; 1.5<br/>gini = 0.351<br/>samples = 489<br/>value = [0, 111, 378]<br/>class = 3>, fillcolor="#8139e5b4"] ;
207 -> 208 ;
209 [label=<latest_login_loan_interval &le; 2.5<br/>gini = 0.373<br/>samples = 391<br/>value = [0, 97, 294]<br/>class = 3>, fillcolor="#8139e5ab"] ;
208 -> 209 ;
210 [label=<gini = 0.368<br/>samples = 300<br/>value = [0, 73, 227]<br/>class = 3>, fillcolor="#8139e5ad"] ;
209 -> 210 ;
211 [label=<gini = 0.388<br/>samples = 91<br/>value = [0, 24, 67]<br/>class = 3>, fillcolor="#8139e5a4"] ;
209 -> 211 ;
212 [label=<latest_login_loan_interval &le; 2.5<br/>gini = 0.245<br/>samples = 98<br/>value = [0, 14, 84]<br/>class = 3>, fillcolor="#8139e5d4"] ;
208 -> 212 ;
213 [label=<gini = 0.235<br/>samples = 81<br/>value = [0, 11, 70]<br/>class = 3>, fillcolor="#8139e5d7"] ;
212 -> 213 ;
214 [label=<gini = 0.291<br/>samples = 17<br/>value = [0, 3, 14]<br/>class = 3>, fillcolor="#8139e5c8"] ;
212 -> 214 ;
215 [label=<latest_login_loan_interval &le; 2.5<br/>gini = 0.412<br/>samples = 320<br/>value = [0, 93, 227]<br/>class = 3>, fillcolor="#8139e597"] ;
207 -> 215 ;
216 [label=<bank_card_count &le; 1.5<br/>gini = 0.421<br/>samples = 229<br/>value = [0, 69, 160]<br/>class = 3>, fillcolor="#8139e591"] ;
215 -> 216 ;
217 [label=<gini = 0.42<br/>samples = 183<br/>value = [0, 55, 128]<br/>class = 3>, fillcolor="#8139e591"] ;
216 -> 217 ;
218 [label=<gini = 0.423<br/>samples = 46<br/>value = [0, 14, 32]<br/>class = 3>, fillcolor="#8139e58f"] ;
216 -> 218 ;
219 [label=<bank_card_count &le; 1.5<br/>gini = 0.388<br/>samples = 91<br/>value = [0, 24, 67]<br/>class = 3>, fillcolor="#8139e5a4"] ;
215 -> 219 ;
220 [label=<gini = 0.382<br/>samples = 74<br/>value = [0, 19, 55]<br/>class = 3>, fillcolor="#8139e5a7"] ;
219 -> 220 ;
221 [label=<gini = 0.415<br/>samples = 17<br/>value = [0, 5, 12]<br/>class = 3>, fillcolor="#8139e595"] ;
219 -> 221 ;
222 [label=<average_loan_interval &le; 1.5<br/>gini = 0.017<br/>samples = 12480<br/>value = [0, 106, 12374]<br/>class = 3>, fillcolor="#8139e5fd"] ;
126 -> 222 ;
223 [label=<gini = 0.0<br/>samples = 9690<br/>value = [0, 0, 9690]<br/>class = 3>, fillcolor="#8139e5ff"] ;
222 -> 223 ;
224 [label=<latest_login_loan_interval &le; 0.5<br/>gini = 0.073<br/>samples = 2790<br/>value = [0, 106, 2684]<br/>class = 3>, fillcolor="#8139e5f5"] ;
222 -> 224 ;
225 [label=<overdue_days &le; 0.5<br/>gini = 0.349<br/>samples = 102<br/>value = [0, 23, 79]<br/>class = 3>, fillcolor="#8139e5b5"] ;
224 -> 225 ;
226 [label=<bank_card_count &le; 1.5<br/>gini = 0.491<br/>samples = 44<br/>value = [0, 19, 25]<br/>class = 3>, fillcolor="#8139e53d"] ;
225 -> 226 ;
227 [label=<gini = 0.5<br/>samples = 37<br/>value = [0, 18, 19]<br/>class = 3>, fillcolor="#8139e50d"] ;
226 -> 227 ;
228 [label=<gini = 0.245<br/>samples = 7<br/>value = [0, 1, 6]<br/>class = 3>, fillcolor="#8139e5d4"] ;
226 -> 228 ;
229 [label=<bank_card_count &le; 1.5<br/>gini = 0.128<br/>samples = 58<br/>value = [0, 4, 54]<br/>class = 3>, fillcolor="#8139e5ec"] ;
225 -> 229 ;
230 [label=<overdue_days &le; 1.5<br/>gini = 0.169<br/>samples = 43<br/>value = [0, 4, 39]<br/>class = 3>, fillcolor="#8139e5e5"] ;
229 -> 230 ;
231 [label=<gini = 0.161<br/>samples = 34<br/>value = [0, 3, 31]<br/>class = 3>, fillcolor="#8139e5e6"] ;
230 -> 231 ;
232 [label=<gini = 0.198<br/>samples = 9<br/>value = [0, 1, 8]<br/>class = 3>, fillcolor="#8139e5df"] ;
230 -> 232 ;
233 [label=<gini = 0.0<br/>samples = 15<br/>value = [0, 0, 15]<br/>class = 3>, fillcolor="#8139e5ff"] ;
229 -> 233 ;
234 [label=<bank_card_count &le; 1.5<br/>gini = 0.06<br/>samples = 2688<br/>value = [0, 83, 2605]<br/>class = 3>, fillcolor="#8139e5f7"] ;
224 -> 234 ;
235 [label=<overdue_days &le; 0.5<br/>gini = 0.071<br/>samples = 1862<br/>value = [0, 69, 1793]<br/>class = 3>, fillcolor="#8139e5f5"] ;
234 -> 235 ;
236 [label=<latest_login_loan_interval &le; 2.5<br/>gini = 0.098<br/>samples = 770<br/>value = [0, 40, 730]<br/>class = 3>, fillcolor="#8139e5f1"] ;
235 -> 236 ;
237 [label=<latest_login_loan_interval &le; 1.5<br/>gini = 0.085<br/>samples = 651<br/>value = [0, 29, 622]<br/>class = 3>, fillcolor="#8139e5f3"] ;
236 -> 237 ;
238 [label=<gini = 0.106<br/>samples = 142<br/>value = [0, 8, 134]<br/>class = 3>, fillcolor="#8139e5f0"] ;
237 -> 238 ;
239 [label=<gini = 0.079<br/>samples = 509<br/>value = [0, 21, 488]<br/>class = 3>, fillcolor="#8139e5f4"] ;
237 -> 239 ;
240 [label=<gini = 0.168<br/>samples = 119<br/>value = [0, 11, 108]<br/>class = 3>, fillcolor="#8139e5e5"] ;
236 -> 240 ;
241 [label=<overdue_days &le; 1.5<br/>gini = 0.052<br/>samples = 1092<br/>value = [0, 29, 1063]<br/>class = 3>, fillcolor="#8139e5f8"] ;
235 -> 241 ;
242 [label=<latest_login_loan_interval &le; 2.5<br/>gini = 0.032<br/>samples = 794<br/>value = [0, 13, 781]<br/>class = 3>, fillcolor="#8139e5fb"] ;
241 -> 242 ;
243 [label=<latest_login_loan_interval &le; 1.5<br/>gini = 0.026<br/>samples = 674<br/>value = [0, 9, 665]<br/>class = 3>, fillcolor="#8139e5fc"] ;
242 -> 243 ;
244 [label=<gini = 0.055<br/>samples = 107<br/>value = [0, 3, 104]<br/>class = 3>, fillcolor="#8139e5f8"] ;
243 -> 244 ;
245 [label=<gini = 0.021<br/>samples = 567<br/>value = [0, 6, 561]<br/>class = 3>, fillcolor="#8139e5fc"] ;
243 -> 245 ;
246 [label=<gini = 0.064<br/>samples = 120<br/>value = [0, 4, 116]<br/>class = 3>, fillcolor="#8139e5f6"] ;
242 -> 246 ;
247 [label=<latest_login_loan_interval &le; 2.5<br/>gini = 0.102<br/>samples = 298<br/>value = [0, 16, 282]<br/>class = 3>, fillcolor="#8139e5f1"] ;
241 -> 247 ;
248 [label=<latest_login_loan_interval &le; 1.5<br/>gini = 0.118<br/>samples = 239<br/>value = [0, 15, 224]<br/>class = 3>, fillcolor="#8139e5ee"] ;
247 -> 248 ;
249 [label=<gini = 0.116<br/>samples = 97<br/>value = [0, 6, 91]<br/>class = 3>, fillcolor="#8139e5ee"] ;
248 -> 249 ;
250 [label=<gini = 0.119<br/>samples = 142<br/>value = [0, 9, 133]<br/>class = 3>, fillcolor="#8139e5ee"] ;
248 -> 250 ;
251 [label=<gini = 0.033<br/>samples = 59<br/>value = [0, 1, 58]<br/>class = 3>, fillcolor="#8139e5fb"] ;
247 -> 251 ;
252 [label=<latest_login_loan_interval &le; 1.5<br/>gini = 0.033<br/>samples = 826<br/>value = [0, 14, 812]<br/>class = 3>, fillcolor="#8139e5fb"] ;
234 -> 252 ;
253 [label=<overdue_days &le; 0.5<br/>gini = 0.092<br/>samples = 124<br/>value = [0, 6, 118]<br/>class = 3>, fillcolor="#8139e5f2"] ;
252 -> 253 ;
254 [label=<gini = 0.087<br/>samples = 44<br/>value = [0, 2, 42]<br/>class = 3>, fillcolor="#8139e5f3"] ;
253 -> 254 ;
255 [label=<overdue_days &le; 1.5<br/>gini = 0.095<br/>samples = 80<br/>value = [0, 4, 76]<br/>class = 3>, fillcolor="#8139e5f2"] ;
253 -> 255 ;
256 [label=<gini = 0.102<br/>samples = 37<br/>value = [0, 2, 35]<br/>class = 3>, fillcolor="#8139e5f0"] ;
255 -> 256 ;
257 [label=<gini = 0.089<br/>samples = 43<br/>value = [0, 2, 41]<br/>class = 3>, fillcolor="#8139e5f3"] ;
255 -> 257 ;
258 [label=<overdue_days &le; 1.5<br/>gini = 0.023<br/>samples = 702<br/>value = [0, 8, 694]<br/>class = 3>, fillcolor="#8139e5fc"] ;
252 -> 258 ;
259 [label=<latest_login_loan_interval &le; 2.5<br/>gini = 0.013<br/>samples = 610<br/>value = [0, 4, 606]<br/>class = 3>, fillcolor="#8139e5fd"] ;
258 -> 259 ;
260 [label=<overdue_days &le; 0.5<br/>gini = 0.008<br/>samples = 511<br/>value = [0, 2, 509]<br/>class = 3>, fillcolor="#8139e5fe"] ;
259 -> 260 ;
261 [label=<gini = 0.009<br/>samples = 227<br/>value = [0, 1, 226]<br/>class = 3>, fillcolor="#8139e5fe"] ;
260 -> 261 ;
262 [label=<gini = 0.007<br/>samples = 284<br/>value = [0, 1, 283]<br/>class = 3>, fillcolor="#8139e5fe"] ;
260 -> 262 ;
263 [label=<overdue_days &le; 0.5<br/>gini = 0.04<br/>samples = 99<br/>value = [0, 2, 97]<br/>class = 3>, fillcolor="#8139e5fa"] ;
259 -> 263 ;
264 [label=<gini = 0.046<br/>samples = 42<br/>value = [0, 1, 41]<br/>class = 3>, fillcolor="#8139e5f9"] ;
263 -> 264 ;
265 [label=<gini = 0.034<br/>samples = 57<br/>value = [0, 1, 56]<br/>class = 3>, fillcolor="#8139e5fa"] ;
263 -> 265 ;
266 [label=<latest_login_loan_interval &le; 2.5<br/>gini = 0.083<br/>samples = 92<br/>value = [0, 4, 88]<br/>class = 3>, fillcolor="#8139e5f3"] ;
258 -> 266 ;
267 [label=<gini = 0.109<br/>samples = 69<br/>value = [0, 4, 65]<br/>class = 3>, fillcolor="#8139e5ef"] ;
266 -> 267 ;
268 [label=<gini = 0.0<br/>samples = 23<br/>value = [0, 0, 23]<br/>class = 3>, fillcolor="#8139e5ff"] ;
266 -> 268 ;
}